<?xml version="1.0"?>
<opencv_storage>
<cascade>
  <stageType>BOOST</stageType>
  <featureType>HAAR</featureType>
  <height>40</height>
  <width>80</width>
  <stageParams>
    <boostType>GAB</boostType>
    <minHitRate>9.9900001287460327e-01</minHitRate>
    <maxFalseAlarm>5.0000000000000000e-01</maxFalseAlarm>
    <weightTrimRate>9.4999999999999996e-01</weightTrimRate>
    <maxDepth>1</maxDepth>
    <maxWeakCount>100</maxWeakCount></stageParams>
  <featureParams>
    <maxCatCount>0</maxCatCount>
    <featSize>1</featSize>
    <mode>ALL</mode></featureParams>
  <stageNum>20</stageNum>
  <stages>
    <!-- stage 0 -->
    <_>
      <maxWeakCount>2</maxWeakCount>
      <stageThreshold>-2.3640380799770355e-01</stageThreshold>
      <weakClassifiers>
        <_>
          <internalNodes>
            0 -1 59 3.0047670006752014e-03</internalNodes>
          <leafValues>
            -9.7122299671173096e-01 6.2376236915588379e-01</leafValues></_>
        <_>
          <internalNodes>
            0 -1 39 3.3067751210182905e-03</internalNodes>
          <leafValues>
            -8.0691629648208618e-01 7.3481923341751099e-01</leafValues></_></weakClassifiers></_>
    <!-- stage 1 -->
    <_>
      <maxWeakCount>4</maxWeakCount>
      <stageThreshold>-8.6652755737304688e-01</stageThreshold>
      <weakClassifiers>
        <_>
          <internalNodes>
            0 -1 47 1.7068732995539904e-03</internalNodes>
          <leafValues>
            -7.1751409769058228e-01 7.1951222419738770e-01</leafValues></_>
        <_>
          <internalNodes>
            0 -1 42 -5.3810194367542863e-04</internalNodes>
          <leafValues>
            9.8621094226837158e-01 -4.1812658309936523e-01</leafValues></_>
        <_>
          <internalNodes>
            0 -1 72 -7.4682240665424615e-05</internalNodes>
          <leafValues>
            8.5753363370895386e-01 -5.2122241258621216e-01</leafValues></_>
        <_>
          <internalNodes>
            0 -1 9 -7.9554095864295959e-03</internalNodes>
          <leafValues>
            7.9033559560775757e-01 -5.6710720062255859e-01</leafValues></_></weakClassifiers></_>
    <!-- stage 2 -->
    <_>
      <maxWeakCount>3</maxWeakCount>
      <stageThreshold>-3.1490579247474670e-01</stageThreshold>
      <weakClassifiers>
        <_>
          <internalNodes>
            0 -1 79 4.8315846470359247e-06</internalNodes>
          <leafValues>
            -6.7032968997955322e-01 7.1069180965423584e-01</leafValues></_>
        <_>
          <internalNodes>
            0 -1 46 1.2494447219069116e-05</internalNodes>
          <leafValues>
            -5.4302871227264404e-01 8.2599633932113647e-01</leafValues></_>
        <_>
          <internalNodes>
            0 -1 49 -4.0670911403140053e-06</internalNodes>
          <leafValues>
            9.8262029886245728e-01 -4.7057244181632996e-01</leafValues></_></weakClassifiers></_>
    <!-- stage 3 -->
    <_>
      <maxWeakCount>6</maxWeakCount>
      <stageThreshold>-4.7601753473281860e-01</stageThreshold>
      <weakClassifiers>
        <_>
          <internalNodes>
            0 -1 13 -1.4138618484139442e-02</internalNodes>
          <leafValues>
            6.0714286565780640e-01 -6.4161849021911621e-01</leafValues></_>
        <_>
          <internalNodes>
            0 -1 58 -4.4410996139049530e-02</internalNodes>
          <leafValues>
            6.0639518499374390e-01 -5.7861220836639404e-01</leafValues></_>
        <_>
          <internalNodes>
            0 -1 25 -6.9249235093593597e-03</internalNodes>
          <leafValues>
            8.6468583345413208e-01 -3.9797827601432800e-01</leafValues></_>
        <_>
          <internalNodes>
            0 -1 60 -1.5330992173403502e-03</internalNodes>
          <leafValues>
            8.6192619800567627e-01 -4.1919782757759094e-01</leafValues></_>
        <_>
          <internalNodes>
            0 -1 5 6.4913900569081306e-03</internalNodes>
          <leafValues>
            -4.2100650072097778e-01 7.6549643278121948e-01</leafValues></_>
        <_>
          <internalNodes>
            0 -1 91 6.1391539929900318e-05</internalNodes>
          <leafValues>
            -3.8911455869674683e-01 8.7794321775436401e-01</leafValues></_></weakClassifiers></_>
    <!-- stage 4 -->
    <_>
      <maxWeakCount>4</maxWeakCount>
      <stageThreshold>-1.2372829020023346e-01</stageThreshold>
      <weakClassifiers>
        <_>
          <internalNodes>
            0 -1 41 2.8410491067916155e-03</internalNodes>
          <leafValues>
            -5.1923078298568726e-01 7.4436092376708984e-01</leafValues></_>
        <_>
          <internalNodes>
            0 -1 57 -2.8283044695854187e-02</internalNodes>
          <leafValues>
            5.0534594058990479e-01 -7.2620451450347900e-01</leafValues></_>
        <_>
          <internalNodes>
            0 -1 54 7.0719541981816292e-03</internalNodes>
          <leafValues>
            -8.8523924350738525e-01 3.5921645164489746e-01</leafValues></_>
        <_>
          <internalNodes>
            0 -1 48 2.6887169951805845e-05</internalNodes>
          <leafValues>
            -4.6905991435050964e-01 7.9829567670822144e-01</leafValues></_></weakClassifiers></_>
    <!-- stage 5 -->
    <_>
      <maxWeakCount>4</maxWeakCount>
      <stageThreshold>-6.2094992399215698e-01</stageThreshold>
      <weakClassifiers>
        <_>
          <internalNodes>
            0 -1 51 9.9090533331036568e-04</internalNodes>
          <leafValues>
            -3.9574468135833740e-01 7.9245281219482422e-01</leafValues></_>
        <_>
          <internalNodes>
            0 -1 101 -9.5964467618614435e-04</internalNodes>
          <leafValues>
            8.5439485311508179e-01 -3.4199082851409912e-01</leafValues></_>
        <_>
          <internalNodes>
            0 -1 100 -3.6111567169427872e-04</internalNodes>
          <leafValues>
            -7.0995944738388062e-01 4.7450894117355347e-01</leafValues></_>
        <_>
          <internalNodes>
            0 -1 78 -6.9292611442506313e-04</internalNodes>
          <leafValues>
            8.7825828790664673e-01 -3.5772335529327393e-01</leafValues></_></weakClassifiers></_>
    <!-- stage 6 -->
    <_>
      <maxWeakCount>4</maxWeakCount>
      <stageThreshold>-5.5942869186401367e-01</stageThreshold>
      <weakClassifiers>
        <_>
          <internalNodes>
            0 -1 24 -2.0767538808286190e-03</internalNodes>
          <leafValues>
            4.7208121418952942e-01 -7.0833331346511841e-01</leafValues></_>
        <_>
          <internalNodes>
            0 -1 65 -3.4073082497343421e-04</internalNodes>
          <leafValues>
            9.1003423929214478e-01 -3.3426827192306519e-01</leafValues></_>
        <_>
          <internalNodes>
            0 -1 29 1.6010964754968882e-03</internalNodes>
          <leafValues>
            -3.1912562251091003e-01 7.9141342639923096e-01</leafValues></_>
        <_>
          <internalNodes>
            0 -1 34 7.5044797267764807e-04</internalNodes>
          <leafValues>
            -3.0824047327041626e-01 9.1539150476455688e-01</leafValues></_></weakClassifiers></_>
    <!-- stage 7 -->
    <_>
      <maxWeakCount>4</maxWeakCount>
      <stageThreshold>-5.9305030107498169e-01</stageThreshold>
      <weakClassifiers>
        <_>
          <internalNodes>
            0 -1 70 3.6144762998446822e-04</internalNodes>
          <leafValues>
            -3.8197425007820129e-01 7.4074071645736694e-01</leafValues></_>
        <_>
          <internalNodes>
            0 -1 18 2.3735642433166504e-02</internalNodes>
          <leafValues>
            -6.2237167358398438e-01 4.7403335571289062e-01</leafValues></_>
        <_>
          <internalNodes>
            0 -1 44 -4.3845066102221608e-04</internalNodes>
          <leafValues>
            7.6429957151412964e-01 -3.7860265374183655e-01</leafValues></_>
        <_>
          <internalNodes>
            0 -1 45 9.9019543267786503e-04</internalNodes>
          <leafValues>
            -3.0650675296783447e-01 9.6110081672668457e-01</leafValues></_></weakClassifiers></_>
    <!-- stage 8 -->
    <_>
      <maxWeakCount>6</maxWeakCount>
      <stageThreshold>-3.2172334194183350e-01</stageThreshold>
      <weakClassifiers>
        <_>
          <internalNodes>
            0 -1 74 -1.7326077795587480e-04</internalNodes>
          <leafValues>
            6.8421053886413574e-01 -3.8325992226600647e-01</leafValues></_>
        <_>
          <internalNodes>
            0 -1 17 -2.5704728905111551e-03</internalNodes>
          <leafValues>
            6.1997437477111816e-01 -3.8710045814514160e-01</leafValues></_>
        <_>
          <internalNodes>
            0 -1 83 2.0562592544592917e-04</internalNodes>
          <leafValues>
            -2.7678558230400085e-01 9.0107405185699463e-01</leafValues></_>
        <_>
          <internalNodes>
            0 -1 7 -7.2271435055881739e-04</internalNodes>
          <leafValues>
            8.3299279212951660e-01 -2.9718190431594849e-01</leafValues></_>
        <_>
          <internalNodes>
            0 -1 99 -7.0569876697845757e-06</internalNodes>
          <leafValues>
            5.8201348781585693e-01 -4.5084875822067261e-01</leafValues></_>
        <_>
          <internalNodes>
            0 -1 12 -1.5040171274449676e-04</internalNodes>
          <leafValues>
            4.8224139213562012e-01 -5.6648379564285278e-01</leafValues></_></weakClassifiers></_>
    <!-- stage 9 -->
    <_>
      <maxWeakCount>3</maxWeakCount>
      <stageThreshold>4.2925875633955002e-02</stageThreshold>
      <weakClassifiers>
        <_>
          <internalNodes>
            0 -1 73 1.7405024846084416e-04</internalNodes>
          <leafValues>
            -3.5864979028701782e-01 7.3076921701431274e-01</leafValues></_>
        <_>
          <internalNodes>
            0 -1 56 -3.6317901685833931e-03</internalNodes>
          <leafValues>
            -9.0477597713470459e-01 2.8102889657020569e-01</leafValues></_>
        <_>
          <internalNodes>
            0 -1 67 3.4318731632083654e-03</internalNodes>
          <leafValues>
            2.9007250070571899e-01 -9.6887224912643433e-01</leafValues></_></weakClassifiers></_>
    <!-- stage 10 -->
    <_>
      <maxWeakCount>7</maxWeakCount>
      <stageThreshold>-8.3927619457244873e-01</stageThreshold>
      <weakClassifiers>
        <_>
          <internalNodes>
            0 -1 80 1.8295945483259857e-04</internalNodes>
          <leafValues>
            -4.3137255311012268e-01 5.7664233446121216e-01</leafValues></_>
        <_>
          <internalNodes>
            0 -1 22 6.2867440283298492e-03</internalNodes>
          <leafValues>
            -5.4476958513259888e-01 4.5406499505043030e-01</leafValues></_>
        <_>
          <internalNodes>
            0 -1 69 -3.4918569028377533e-02</internalNodes>
          <leafValues>
            4.5833927392959595e-01 -5.6025999784469604e-01</leafValues></_>
        <_>
          <internalNodes>
            0 -1 10 -4.6079175081104040e-04</internalNodes>
          <leafValues>
            7.5975114107131958e-01 -3.3075740933418274e-01</leafValues></_>
        <_>
          <internalNodes>
            0 -1 8 -6.6181164584122598e-05</internalNodes>
          <leafValues>
            -8.9872813224792480e-01 2.9020121693611145e-01</leafValues></_>
        <_>
          <internalNodes>
            0 -1 6 1.7482668627053499e-03</internalNodes>
          <leafValues>
            -4.1236656904220581e-01 6.6348040103912354e-01</leafValues></_>
        <_>
          <internalNodes>
            0 -1 75 -6.8355267867445946e-03</internalNodes>
          <leafValues>
            -8.3184629678726196e-01 3.2154422998428345e-01</leafValues></_></weakClassifiers></_>
    <!-- stage 11 -->
    <_>
      <maxWeakCount>6</maxWeakCount>
      <stageThreshold>-1.1749439239501953e+00</stageThreshold>
      <weakClassifiers>
        <_>
          <internalNodes>
            0 -1 19 -2.3797675967216492e-02</internalNodes>
          <leafValues>
            5.1999998092651367e-01 -4.5549738407135010e-01</leafValues></_>
        <_>
          <internalNodes>
            0 -1 93 -9.5974588475655764e-05</internalNodes>
          <leafValues>
            -7.9922389984130859e-01 3.0189779400825500e-01</leafValues></_>
        <_>
          <internalNodes>
            0 -1 81 -1.1783400259446353e-04</internalNodes>
          <leafValues>
            2.8833818435668945e-01 -7.8124469518661499e-01</leafValues></_>
        <_>
          <internalNodes>
            0 -1 30 3.6990171065554023e-04</internalNodes>
          <leafValues>
            -2.7904453873634338e-01 9.1177433729171753e-01</leafValues></_>
        <_>
          <internalNodes>
            0 -1 94 -3.6580064333975315e-03</internalNodes>
          <leafValues>
            -7.8142631053924561e-01 3.5409149527549744e-01</leafValues></_>
        <_>
          <internalNodes>
            0 -1 43 -2.8580368962138891e-04</internalNodes>
          <leafValues>
            9.2051559686660767e-01 -3.1514656543731689e-01</leafValues></_></weakClassifiers></_>
    <!-- stage 12 -->
    <_>
      <maxWeakCount>6</maxWeakCount>
      <stageThreshold>-6.7150413990020752e-01</stageThreshold>
      <weakClassifiers>
        <_>
          <internalNodes>
            0 -1 68 1.3191543985158205e-04</internalNodes>
          <leafValues>
            -4.6524062752723694e-01 5.0649350881576538e-01</leafValues></_>
        <_>
          <internalNodes>
            0 -1 14 5.4219993762671947e-04</internalNodes>
          <leafValues>
            -3.2964268326759338e-01 7.5253820419311523e-01</leafValues></_>
        <_>
          <internalNodes>
            0 -1 98 -9.4219427555799484e-03</internalNodes>
          <leafValues>
            5.0613015890121460e-01 -4.7999233007431030e-01</leafValues></_>
        <_>
          <internalNodes>
            0 -1 76 -6.6881696693599224e-04</internalNodes>
          <leafValues>
            3.7869974970817566e-01 -6.9751846790313721e-01</leafValues></_>
        <_>
          <internalNodes>
            0 -1 1 -1.5148369129747152e-03</internalNodes>
          <leafValues>
            8.8428169488906860e-01 -2.7001890540122986e-01</leafValues></_>
        <_>
          <internalNodes>
            0 -1 2 7.0536593739234377e-06</internalNodes>
          <leafValues>
            -4.1687658429145813e-01 5.8478635549545288e-01</leafValues></_></weakClassifiers></_>
    <!-- stage 13 -->
    <_>
      <maxWeakCount>8</maxWeakCount>
      <stageThreshold>-1.0800514221191406e+00</stageThreshold>
      <weakClassifiers>
        <_>
          <internalNodes>
            0 -1 40 -2.2488491958938539e-04</internalNodes>
          <leafValues>
            6.8421053886413574e-01 -3.0081301927566528e-01</leafValues></_>
        <_>
          <internalNodes>
            0 -1 50 4.4063404202461243e-03</internalNodes>
          <leafValues>
            -2.7471435070037842e-01 7.1390140056610107e-01</leafValues></_>
        <_>
          <internalNodes>
            0 -1 77 4.6362727880477905e-04</internalNodes>
          <leafValues>
            -3.1351900100708008e-01 6.9302850961685181e-01</leafValues></_>
        <_>
          <internalNodes>
            0 -1 88 2.9369042022153735e-04</internalNodes>
          <leafValues>
            -3.8058748841285706e-01 6.5536326169967651e-01</leafValues></_>
        <_>
          <internalNodes>
            0 -1 0 -1.9251502817496657e-04</internalNodes>
          <leafValues>
            -6.3681459426879883e-01 3.7777334451675415e-01</leafValues></_>
        <_>
          <internalNodes>
            0 -1 66 -1.6643307753838599e-04</internalNodes>
          <leafValues>
            6.5023833513259888e-01 -3.6240473389625549e-01</leafValues></_>
        <_>
          <internalNodes>
            0 -1 90 2.0825418687309138e-06</internalNodes>
          <leafValues>
            -4.4489288330078125e-01 5.4409301280975342e-01</leafValues></_>
        <_>
          <internalNodes>
            0 -1 4 -1.1269852984696627e-03</internalNodes>
          <leafValues>
            7.8330761194229126e-01 -3.6987924575805664e-01</leafValues></_></weakClassifiers></_>
    <!-- stage 14 -->
    <_>
      <maxWeakCount>5</maxWeakCount>
      <stageThreshold>-5.0939834117889404e-01</stageThreshold>
      <weakClassifiers>
        <_>
          <internalNodes>
            0 -1 71 -1.2087636860087514e-03</internalNodes>
          <leafValues>
            -9.2105263471603394e-01 2.3018868267536163e-01</leafValues></_>
        <_>
          <internalNodes>
            0 -1 21 -1.3857604935765266e-03</internalNodes>
          <leafValues>
            7.2794085741043091e-01 -3.3262786269187927e-01</leafValues></_>
        <_>
          <internalNodes>
            0 -1 95 -5.4013519547879696e-03</internalNodes>
          <leafValues>
            -9.2460799217224121e-01 2.5292128324508667e-01</leafValues></_>
        <_>
          <internalNodes>
            0 -1 63 2.2456586360931396e-02</internalNodes>
          <leafValues>
            2.3651711642742157e-01 -8.4393882751464844e-01</leafValues></_>
        <_>
          <internalNodes>
            0 -1 37 -2.4966790806502104e-03</internalNodes>
          <leafValues>
            -8.5150378942489624e-01 2.8113171458244324e-01</leafValues></_></weakClassifiers></_>
    <!-- stage 15 -->
    <_>
      <maxWeakCount>6</maxWeakCount>
      <stageThreshold>-7.7828967571258545e-01</stageThreshold>
      <weakClassifiers>
        <_>
          <internalNodes>
            0 -1 35 1.1040432378649712e-02</internalNodes>
          <leafValues>
            -3.7962964177131653e-01 5.8399999141693115e-01</leafValues></_>
        <_>
          <internalNodes>
            0 -1 32 -3.6522600566968322e-04</internalNodes>
          <leafValues>
            7.8064393997192383e-01 -2.3734341561794281e-01</leafValues></_>
        <_>
          <internalNodes>
            0 -1 89 5.8000623539555818e-06</internalNodes>
          <leafValues>
            -5.7424491643905640e-01 4.0145403146743774e-01</leafValues></_>
        <_>
          <internalNodes>
            0 -1 86 -1.0935645550489426e-03</internalNodes>
          <leafValues>
            -9.7705847024917603e-01 2.1617610752582550e-01</leafValues></_>
        <_>
          <internalNodes>
            0 -1 62 -2.6441165246069431e-03</internalNodes>
          <leafValues>
            4.3065503239631653e-01 -4.8329591751098633e-01</leafValues></_>
        <_>
          <internalNodes>
            0 -1 53 8.4339955355972052e-04</internalNodes>
          <leafValues>
            -2.8358155488967896e-01 7.1506601572036743e-01</leafValues></_></weakClassifiers></_>
    <!-- stage 16 -->
    <_>
      <maxWeakCount>7</maxWeakCount>
      <stageThreshold>-3.8992503285408020e-01</stageThreshold>
      <weakClassifiers>
        <_>
          <internalNodes>
            0 -1 96 -5.3565381094813347e-03</internalNodes>
          <leafValues>
            -8.3783781528472900e-01 1.9850187003612518e-01</leafValues></_>
        <_>
          <internalNodes>
            0 -1 36 4.0250940946862102e-04</internalNodes>
          <leafValues>
            -2.7518004179000854e-01 8.1604182720184326e-01</leafValues></_>
        <_>
          <internalNodes>
            0 -1 84 2.8398795984685421e-04</internalNodes>
          <leafValues>
            -2.5095358490943909e-01 6.9710761308670044e-01</leafValues></_>
        <_>
          <internalNodes>
            0 -1 61 3.3035007072612643e-04</internalNodes>
          <leafValues>
            -2.8963837027549744e-01 7.0977258682250977e-01</leafValues></_>
        <_>
          <internalNodes>
            0 -1 27 -6.0314130969345570e-03</internalNodes>
          <leafValues>
            5.0677281618118286e-01 -4.5301616191864014e-01</leafValues></_>
        <_>
          <internalNodes>
            0 -1 103 -7.2653288953006268e-04</internalNodes>
          <leafValues>
            -7.7507227659225464e-01 2.4702717363834381e-01</leafValues></_>
        <_>
          <internalNodes>
            0 -1 11 6.6851073643192649e-04</internalNodes>
          <leafValues>
            -4.1029286384582520e-01 5.2161258459091187e-01</leafValues></_></weakClassifiers></_>
    <!-- stage 17 -->
    <_>
      <maxWeakCount>5</maxWeakCount>
      <stageThreshold>-5.6512719392776489e-01</stageThreshold>
      <weakClassifiers>
        <_>
          <internalNodes>
            0 -1 97 -4.8488751053810120e-03</internalNodes>
          <leafValues>
            -7.1428573131561279e-01 3.1004366278648376e-01</leafValues></_>
        <_>
          <internalNodes>
            0 -1 52 4.1017145849764347e-04</internalNodes>
          <leafValues>
            -2.7816769480705261e-01 7.8543084859848022e-01</leafValues></_>
        <_>
          <internalNodes>
            0 -1 87 1.2901850277557969e-03</internalNodes>
          <leafValues>
            -2.5911509990692139e-01 7.2844833135604858e-01</leafValues></_>
        <_>
          <internalNodes>
            0 -1 16 -1.6193228075280786e-03</internalNodes>
          <leafValues>
            2.7650487422943115e-01 -8.1234520673751831e-01</leafValues></_>
        <_>
          <internalNodes>
            0 -1 82 2.3154738300945610e-05</internalNodes>
          <leafValues>
            -4.9503067135810852e-01 4.7445717453956604e-01</leafValues></_></weakClassifiers></_>
    <!-- stage 18 -->
    <_>
      <maxWeakCount>8</maxWeakCount>
      <stageThreshold>-2.6856660842895508e-01</stageThreshold>
      <weakClassifiers>
        <_>
          <internalNodes>
            0 -1 55 4.4297554995864630e-04</internalNodes>
          <leafValues>
            -2.4812030792236328e-01 7.5999999046325684e-01</leafValues></_>
        <_>
          <internalNodes>
            0 -1 102 -2.0125251263380051e-02</internalNodes>
          <leafValues>
            3.7253203988075256e-01 -5.5459356307983398e-01</leafValues></_>
        <_>
          <internalNodes>
            0 -1 28 -3.5776940640062094e-03</internalNodes>
          <leafValues>
            7.8068971633911133e-01 -2.8041660785675049e-01</leafValues></_>
        <_>
          <internalNodes>
            0 -1 33 8.1692222738638520e-04</internalNodes>
          <leafValues>
            -3.6623510718345642e-01 5.2559596300125122e-01</leafValues></_>
        <_>
          <internalNodes>
            0 -1 23 -3.2105389982461929e-03</internalNodes>
          <leafValues>
            8.2246863842010498e-01 -2.2310246527194977e-01</leafValues></_>
        <_>
          <internalNodes>
            0 -1 85 6.3272059196606278e-04</internalNodes>
          <leafValues>
            2.9071989655494690e-01 -7.8502535820007324e-01</leafValues></_>
        <_>
          <internalNodes>
            0 -1 64 -8.9658380602486432e-05</internalNodes>
          <leafValues>
            6.0951763391494751e-01 -3.7019780278205872e-01</leafValues></_>
        <_>
          <internalNodes>
            0 -1 38 -1.0688689071685076e-03</internalNodes>
          <leafValues>
            7.2224795818328857e-01 -3.0540317296981812e-01</leafValues></_></weakClassifiers></_>
    <!-- stage 19 -->
    <_>
      <maxWeakCount>6</maxWeakCount>
      <stageThreshold>-1.2285768985748291e+00</stageThreshold>
      <weakClassifiers>
        <_>
          <internalNodes>
            0 -1 31 -1.8144922796636820e-03</internalNodes>
          <leafValues>
            8.3098590373992920e-01 -2.5185185670852661e-01</leafValues></_>
        <_>
          <internalNodes>
            0 -1 3 1.4065080904401839e-04</internalNodes>
          <leafValues>
            3.1379166245460510e-01 -7.5350409746170044e-01</leafValues></_>
        <_>
          <internalNodes>
            0 -1 92 -8.3203619578853250e-04</internalNodes>
          <leafValues>
            2.6900294423103333e-01 -6.8278062343597412e-01</leafValues></_>
        <_>
          <internalNodes>
            0 -1 20 2.3954897187650204e-03</internalNodes>
          <leafValues>
            4.0667644143104553e-01 -5.4438322782516479e-01</leafValues></_>
        <_>
          <internalNodes>
            0 -1 15 2.0038716495037079e-02</internalNodes>
          <leafValues>
            -6.8785125017166138e-01 3.2237932085990906e-01</leafValues></_>
        <_>
          <internalNodes>
            0 -1 26 2.1338319129426964e-06</internalNodes>
          <leafValues>
            -3.8573214411735535e-01 5.9290254116058350e-01</leafValues></_></weakClassifiers></_></stages>
  <features>
    <_>
      <rects>
        <_>
          0 36 12 3 -1.</_>
        <_>
          4 36 4 3 3.</_></rects>
      <tilted>0</tilted></_>
    <_>
      <rects>
        <_>
          10 11 25 3 -1.</_>
        <_>
          10 12 25 1 3.</_></rects>
      <tilted>0</tilted></_>
    <_>
      <rects>
        <_>
          11 7 3 2 -1.</_>
        <_>
          11 7 3 1 2.</_></rects>
      <tilted>1</tilted></_>
    <_>
      <rects>
        <_>
          11 37 6 2 -1.</_>
        <_>
          14 37 3 2 2.</_></rects>
      <tilted>0</tilted></_>
    <_>
      <rects>
        <_>
          12 19 19 3 -1.</_>
        <_>
          12 20 19 1 3.</_></rects>
      <tilted>0</tilted></_>
    <_>
      <rects>
        <_>
          14 10 21 13 -1.</_>
        <_>
          21 10 7 13 3.</_></rects>
      <tilted>0</tilted></_>
    <_>
      <rects>
        <_>
          16 9 8 10 -1.</_>
        <_>
          16 9 4 5 2.</_>
        <_>
          20 14 4 5 2.</_></rects>
      <tilted>0</tilted></_>
    <_>
      <rects>
        <_>
          17 17 8 4 -1.</_>
        <_>
          17 18 8 2 2.</_></rects>
      <tilted>0</tilted></_>
    <_>
      <rects>
        <_>
          17 37 1 2 -1.</_>
        <_>
          17 37 1 1 2.</_></rects>
      <tilted>1</tilted></_>
    <_>
      <rects>
        <_>
          19 23 24 9 -1.</_>
        <_>
          27 23 8 9 3.</_></rects>
      <tilted>0</tilted></_>
    <_>
      <rects>
        <_>
          20 15 9 3 -1.</_>
        <_>
          20 16 9 1 3.</_></rects>
      <tilted>0</tilted></_>
    <_>
      <rects>
        <_>
          22 25 8 14 -1.</_>
        <_>
          22 25 4 7 2.</_>
        <_>
          26 32 4 7 2.</_></rects>
      <tilted>0</tilted></_>
    <_>
      <rects>
        <_>
          23 31 26 4 -1.</_>
        <_>
          23 31 13 2 2.</_>
        <_>
          36 33 13 2 2.</_></rects>
      <tilted>0</tilted></_>
    <_>
      <rects>
        <_>
          24 15 8 24 -1.</_>
        <_>
          24 27 8 12 2.</_></rects>
      <tilted>0</tilted></_>
    <_>
      <rects>
        <_>
          24 20 11 2 -1.</_>
        <_>
          24 21 11 1 2.</_></rects>
      <tilted>0</tilted></_>
    <_>
      <rects>
        <_>
          24 25 48 12 -1.</_>
        <_>
          40 25 16 12 3.</_></rects>
      <tilted>0</tilted></_>
    <_>
      <rects>
        <_>
          25 0 21 21 -1.</_>
        <_>
          32 7 7 7 9.</_></rects>
      <tilted>0</tilted></_>
    <_>
      <rects>
        <_>
          25 3 8 32 -1.</_>
        <_>
          29 3 4 32 2.</_></rects>
      <tilted>0</tilted></_>
    <_>
      <rects>
        <_>
          25 25 39 15 -1.</_>
        <_>
          38 25 13 15 3.</_></rects>
      <tilted>0</tilted></_>
    <_>
      <rects>
        <_>
          26 1 14 21 -1.</_>
        <_>
          26 8 14 7 3.</_></rects>
      <tilted>0</tilted></_>
    <_>
      <rects>
        <_>
          26 7 18 19 -1.</_>
        <_>
          35 7 9 19 2.</_></rects>
      <tilted>0</tilted></_>
    <_>
      <rects>
        <_>
          27 3 3 17 -1.</_>
        <_>
          28 4 1 17 3.</_></rects>
      <tilted>1</tilted></_>
    <_>
      <rects>
        <_>
          28 8 14 9 -1.</_>
        <_>
          25 11 14 3 3.</_></rects>
      <tilted>1</tilted></_>
    <_>
      <rects>
        <_>
          29 11 9 3 -1.</_>
        <_>
          32 12 3 1 9.</_></rects>
      <tilted>0</tilted></_>
    <_>
      <rects>
        <_>
          29 25 11 10 -1.</_>
        <_>
          29 30 11 5 2.</_></rects>
      <tilted>0</tilted></_>
    <_>
      <rects>
        <_>
          30 9 12 14 -1.</_>
        <_>
          34 9 4 14 3.</_></rects>
      <tilted>0</tilted></_>
    <_>
      <rects>
        <_>
          30 19 2 2 -1.</_>
        <_>
          30 19 1 1 2.</_>
        <_>
          31 20 1 1 2.</_></rects>
      <tilted>0</tilted></_>
    <_>
      <rects>
        <_>
          31 0 20 7 -1.</_>
        <_>
          36 5 10 7 2.</_></rects>
      <tilted>1</tilted></_>
    <_>
      <rects>
        <_>
          31 12 12 6 -1.</_>
        <_>
          34 12 6 6 2.</_></rects>
      <tilted>0</tilted></_>
    <_>
      <rects>
        <_>
          32 17 6 3 -1.</_>
        <_>
          34 18 2 1 9.</_></rects>
      <tilted>0</tilted></_>
    <_>
      <rects>
        <_>
          32 24 3 4 -1.</_>
        <_>
          33 24 1 4 3.</_></rects>
      <tilted>0</tilted></_>
    <_>
      <rects>
        <_>
          33 4 3 14 -1.</_>
        <_>
          34 5 1 14 3.</_></rects>
      <tilted>1</tilted></_>
    <_>
      <rects>
        <_>
          33 14 4 4 -1.</_>
        <_>
          34 14 2 4 2.</_></rects>
      <tilted>0</tilted></_>
    <_>
      <rects>
        <_>
          33 14 4 7 -1.</_>
        <_>
          34 15 2 7 2.</_></rects>
      <tilted>1</tilted></_>
    <_>
      <rects>
        <_>
          33 20 3 3 -1.</_>
        <_>
          34 21 1 1 9.</_></rects>
      <tilted>0</tilted></_>
    <_>
      <rects>
        <_>
          34 14 6 16 -1.</_>
        <_>
          34 14 3 16 2.</_></rects>
      <tilted>1</tilted></_>
    <_>
      <rects>
        <_>
          34 17 3 2 -1.</_>
        <_>
          35 17 1 2 3.</_></rects>
      <tilted>0</tilted></_>
    <_>
      <rects>
        <_>
          34 18 12 12 -1.</_>
        <_>
          38 22 4 4 9.</_></rects>
      <tilted>0</tilted></_>
    <_>
      <rects>
        <_>
          34 18 15 4 -1.</_>
        <_>
          34 19 15 2 2.</_></rects>
      <tilted>0</tilted></_>
    <_>
      <rects>
        <_>
          34 20 16 18 -1.</_>
        <_>
          38 20 8 18 2.</_></rects>
      <tilted>0</tilted></_>
    <_>
      <rects>
        <_>
          34 22 2 4 -1.</_>
        <_>
          35 22 1 4 2.</_></rects>
      <tilted>0</tilted></_>
    <_>
      <rects>
        <_>
          35 11 6 9 -1.</_>
        <_>
          37 13 2 9 3.</_></rects>
      <tilted>1</tilted></_>
    <_>
      <rects>
        <_>
          35 14 4 10 -1.</_>
        <_>
          36 14 2 10 2.</_></rects>
      <tilted>0</tilted></_>
    <_>
      <rects>
        <_>
          35 16 2 4 -1.</_>
        <_>
          35 16 1 2 2.</_>
        <_>
          36 18 1 2 2.</_></rects>
      <tilted>0</tilted></_>
    <_>
      <rects>
        <_>
          35 16 3 9 -1.</_>
        <_>
          36 16 1 9 3.</_></rects>
      <tilted>0</tilted></_>
    <_>
      <rects>
        <_>
          35 16 3 21 -1.</_>
        <_>
          36 16 1 21 3.</_></rects>
      <tilted>0</tilted></_>
    <_>
      <rects>
        <_>
          35 19 4 2 -1.</_>
        <_>
          35 19 2 1 2.</_>
        <_>
          37 20 2 1 2.</_></rects>
      <tilted>0</tilted></_>
    <_>
      <rects>
        <_>
          35 19 12 5 -1.</_>
        <_>
          39 19 4 5 3.</_></rects>
      <tilted>0</tilted></_>
    <_>
      <rects>
        <_>
          35 24 2 2 -1.</_>
        <_>
          35 24 1 1 2.</_>
        <_>
          36 25 1 1 2.</_></rects>
      <tilted>0</tilted></_>
    <_>
      <rects>
        <_>
          35 26 2 1 -1.</_>
        <_>
          36 26 1 1 2.</_></rects>
      <tilted>0</tilted></_>
    <_>
      <rects>
        <_>
          36 11 2 9 -1.</_>
        <_>
          33 14 2 3 3.</_></rects>
      <tilted>1</tilted></_>
    <_>
      <rects>
        <_>
          36 13 4 4 -1.</_>
        <_>
          37 14 2 4 2.</_></rects>
      <tilted>1</tilted></_>
    <_>
      <rects>
        <_>
          36 13 3 8 -1.</_>
        <_>
          37 13 1 8 3.</_></rects>
      <tilted>0</tilted></_>
    <_>
      <rects>
        <_>
          36 15 2 5 -1.</_>
        <_>
          36 15 1 5 2.</_></rects>
      <tilted>1</tilted></_>
    <_>
      <rects>
        <_>
          37 8 15 14 -1.</_>
        <_>
          37 15 15 7 2.</_></rects>
      <tilted>0</tilted></_>
    <_>
      <rects>
        <_>
          37 9 3 9 -1.</_>
        <_>
          38 9 1 9 3.</_></rects>
      <tilted>0</tilted></_>
    <_>
      <rects>
        <_>
          37 17 14 10 -1.</_>
        <_>
          37 22 14 5 2.</_></rects>
      <tilted>0</tilted></_>
    <_>
      <rects>
        <_>
          37 22 42 9 -1.</_>
        <_>
          58 22 21 9 2.</_></rects>
      <tilted>0</tilted></_>
    <_>
      <rects>
        <_>
          38 0 42 38 -1.</_>
        <_>
          52 0 14 38 3.</_></rects>
      <tilted>0</tilted></_>
    <_>
      <rects>
        <_>
          38 10 10 12 -1.</_>
        <_>
          38 16 10 6 2.</_></rects>
      <tilted>0</tilted></_>
    <_>
      <rects>
        <_>
          38 27 12 3 -1.</_>
        <_>
          42 28 4 1 9.</_></rects>
      <tilted>0</tilted></_>
    <_>
      <rects>
        <_>
          39 12 3 6 -1.</_>
        <_>
          40 12 1 6 3.</_></rects>
      <tilted>0</tilted></_>
    <_>
      <rects>
        <_>
          39 15 22 2 -1.</_>
        <_>
          50 15 11 2 2.</_></rects>
      <tilted>0</tilted></_>
    <_>
      <rects>
        <_>
          39 16 9 15 -1.</_>
        <_>
          42 21 3 5 9.</_></rects>
      <tilted>0</tilted></_>
    <_>
      <rects>
        <_>
          39 19 4 1 -1.</_>
        <_>
          40 19 2 1 2.</_></rects>
      <tilted>0</tilted></_>
    <_>
      <rects>
        <_>
          39 20 1 3 -1.</_>
        <_>
          38 21 1 1 3.</_></rects>
      <tilted>1</tilted></_>
    <_>
      <rects>
        <_>
          40 17 3 3 -1.</_>
        <_>
          41 17 1 3 3.</_></rects>
      <tilted>0</tilted></_>
    <_>
      <rects>
        <_>
          40 18 4 10 -1.</_>
        <_>
          40 23 4 5 2.</_></rects>
      <tilted>0</tilted></_>
    <_>
      <rects>
        <_>
          40 22 3 2 -1.</_>
        <_>
          40 23 3 1 2.</_></rects>
      <tilted>0</tilted></_>
    <_>
      <rects>
        <_>
          41 0 39 36 -1.</_>
        <_>
          54 12 13 12 9.</_></rects>
      <tilted>0</tilted></_>
    <_>
      <rects>
        <_>
          41 11 3 10 -1.</_>
        <_>
          42 11 1 10 3.</_></rects>
      <tilted>0</tilted></_>
    <_>
      <rects>
        <_>
          41 12 4 15 -1.</_>
        <_>
          41 17 4 5 3.</_></rects>
      <tilted>0</tilted></_>
    <_>
      <rects>
        <_>
          41 18 2 4 -1.</_>
        <_>
          41 18 1 2 2.</_>
        <_>
          42 20 1 2 2.</_></rects>
      <tilted>0</tilted></_>
    <_>
      <rects>
        <_>
          41 19 1 3 -1.</_>
        <_>
          41 20 1 1 3.</_></rects>
      <tilted>0</tilted></_>
    <_>
      <rects>
        <_>
          41 20 4 2 -1.</_>
        <_>
          41 21 4 1 2.</_></rects>
      <tilted>0</tilted></_>
    <_>
      <rects>
        <_>
          41 20 17 10 -1.</_>
        <_>
          41 25 17 5 2.</_></rects>
      <tilted>0</tilted></_>
    <_>
      <rects>
        <_>
          41 22 8 7 -1.</_>
        <_>
          45 22 4 7 2.</_></rects>
      <tilted>0</tilted></_>
    <_>
      <rects>
        <_>
          41 24 2 4 -1.</_>
        <_>
          41 25 2 2 2.</_></rects>
      <tilted>0</tilted></_>
    <_>
      <rects>
        <_>
          41 26 3 3 -1.</_>
        <_>
          42 27 1 1 9.</_></rects>
      <tilted>0</tilted></_>
    <_>
      <rects>
        <_>
          42 22 1 2 -1.</_>
        <_>
          42 23 1 1 2.</_></rects>
      <tilted>0</tilted></_>
    <_>
      <rects>
        <_>
          42 23 3 2 -1.</_>
        <_>
          42 24 3 1 2.</_></rects>
      <tilted>0</tilted></_>
    <_>
      <rects>
        <_>
          42 23 6 6 -1.</_>
        <_>
          45 23 3 6 2.</_></rects>
      <tilted>0</tilted></_>
    <_>
      <rects>
        <_>
          42 24 2 2 -1.</_>
        <_>
          42 25 2 1 2.</_></rects>
      <tilted>0</tilted></_>
    <_>
      <rects>
        <_>
          42 25 1 3 -1.</_>
        <_>
          42 26 1 1 3.</_></rects>
      <tilted>0</tilted></_>
    <_>
      <rects>
        <_>
          42 29 4 2 -1.</_>
        <_>
          42 30 4 1 2.</_></rects>
      <tilted>0</tilted></_>
    <_>
      <rects>
        <_>
          42 36 8 4 -1.</_>
        <_>
          42 38 8 2 2.</_></rects>
      <tilted>0</tilted></_>
    <_>
      <rects>
        <_>
          43 19 6 4 -1.</_>
        <_>
          43 19 3 4 2.</_></rects>
      <tilted>1</tilted></_>
    <_>
      <rects>
        <_>
          43 20 6 3 -1.</_>
        <_>
          45 21 2 1 9.</_></rects>
      <tilted>0</tilted></_>
    <_>
      <rects>
        <_>
          43 21 4 2 -1.</_>
        <_>
          43 22 4 1 2.</_></rects>
      <tilted>0</tilted></_>
    <_>
      <rects>
        <_>
          43 23 1 2 -1.</_>
        <_>
          43 24 1 1 2.</_></rects>
      <tilted>0</tilted></_>
    <_>
      <rects>
        <_>
          43 28 2 2 -1.</_>
        <_>
          43 29 2 1 2.</_></rects>
      <tilted>0</tilted></_>
    <_>
      <rects>
        <_>
          44 25 4 2 -1.</_>
        <_>
          44 25 2 1 2.</_>
        <_>
          46 26 2 1 2.</_></rects>
      <tilted>0</tilted></_>
    <_>
      <rects>
        <_>
          44 26 10 14 -1.</_>
        <_>
          44 33 10 7 2.</_></rects>
      <tilted>0</tilted></_>
    <_>
      <rects>
        <_>
          44 38 8 2 -1.</_>
        <_>
          46 38 4 2 2.</_></rects>
      <tilted>0</tilted></_>
    <_>
      <rects>
        <_>
          46 14 18 21 -1.</_>
        <_>
          46 21 18 7 3.</_></rects>
      <tilted>0</tilted></_>
    <_>
      <rects>
        <_>
          47 12 9 18 -1.</_>
        <_>
          50 15 3 18 3.</_></rects>
      <tilted>1</tilted></_>
    <_>
      <rects>
        <_>
          47 15 9 15 -1.</_>
        <_>
          50 18 3 15 3.</_></rects>
      <tilted>1</tilted></_>
    <_>
      <rects>
        <_>
          47 17 12 9 -1.</_>
        <_>
          51 21 4 9 3.</_></rects>
      <tilted>1</tilted></_>
    <_>
      <rects>
        <_>
          49 0 9 28 -1.</_>
        <_>
          52 3 3 28 3.</_></rects>
      <tilted>1</tilted></_>
    <_>
      <rects>
        <_>
          52 13 19 2 -1.</_>
        <_>
          52 14 19 1 2.</_></rects>
      <tilted>0</tilted></_>
    <_>
      <rects>
        <_>
          52 38 16 1 -1.</_>
        <_>
          60 38 8 1 2.</_></rects>
      <tilted>0</tilted></_>
    <_>
      <rects>
        <_>
          54 9 3 14 -1.</_>
        <_>
          55 10 1 14 3.</_></rects>
      <tilted>1</tilted></_>
    <_>
      <rects>
        <_>
          61 6 10 20 -1.</_>
        <_>
          61 6 10 10 2.</_></rects>
      <tilted>1</tilted></_>
    <_>
      <rects>
        <_>
          63 37 14 2 -1.</_>
        <_>
          70 37 7 2 2.</_></rects>
      <tilted>0</tilted></_></features></cascade>
</opencv_storage>
