<?xml version="1.0"?>
<opencv_storage>
<cascade>
  <stageType>BOOST</stageType>
  <featureType>LBP</featureType>
  <height>40</height>
  <width>80</width>
  <stageParams>
    <boostType>GAB</boostType>
    <minHitRate>9.9900001287460327e-01</minHitRate>
    <maxFalseAlarm>5.0000000000000000e-01</maxFalseAlarm>
    <weightTrimRate>9.4999999999999996e-01</weightTrimRate>
    <maxDepth>1</maxDepth>
    <maxWeakCount>100</maxWeakCount></stageParams>
  <featureParams>
    <maxCatCount>0</maxCatCount>
    <featSize>1</featSize></featureParams>
  <stageNum>5</stageNum>
  <stages>
    <!-- stage 0 -->
    <_>
      <maxWeakCount>1</maxWeakCount>
      <stageThreshold>5.3846156597137451e-01</stageThreshold>
      <weakClassifiers>
        <_>
          <internalNodes>
            0 -1 9 5.0000000000000000e-01</internalNodes>
          <leafValues>
            5.3846156597137451e-01 -1.</leafValues></_></weakClassifiers></_>
    <!-- stage 1 -->
    <_>
      <maxWeakCount>2</maxWeakCount>
      <stageThreshold>-7.8625309467315674e-01</stageThreshold>
      <weakClassifiers>
        <_>
          <internalNodes>
            0 -1 5 5.0000000000000000e-01</internalNodes>
          <leafValues>
            8.5714288055896759e-02 -9.9658119678497314e-01</leafValues></_>
        <_>
          <internalNodes>
            0 -1 6 5.0000000000000000e-01</internalNodes>
          <leafValues>
            2.1032811701297760e-01 -1.</leafValues></_></weakClassifiers></_>
    <!-- stage 2 -->
    <_>
      <maxWeakCount>3</maxWeakCount>
      <stageThreshold>-1.6729395389556885e+00</stageThreshold>
      <weakClassifiers>
        <_>
          <internalNodes>
            0 -1 8 3.</internalNodes>
          <leafValues>
            6.9230771064758301e-01 -9.7034597396850586e-01</leafValues></_>
        <_>
          <internalNodes>
            0 -1 0 5.0000000000000000e-01</internalNodes>
          <leafValues>
            2.5396156311035156e-01 -9.7122728824615479e-01</leafValues></_>
        <_>
          <internalNodes>
            0 -1 11 4.5000000000000000e+00</internalNodes>
          <leafValues>
            4.8166370391845703e-01 -9.5655512809753418e-01</leafValues></_></weakClassifiers></_>
    <!-- stage 3 -->
    <_>
      <maxWeakCount>3</maxWeakCount>
      <stageThreshold>-1.5993043184280396e+00</stageThreshold>
      <weakClassifiers>
        <_>
          <internalNodes>
            0 -1 2 4.5000000000000000e+00</internalNodes>
          <leafValues>
            -2.1052631735801697e-01 -9.8281788825988770e-01</leafValues></_>
        <_>
          <internalNodes>
            0 -1 4 5.0000000000000000e-01</internalNodes>
          <leafValues>
            1.0527694225311279e-01 -9.7498279809951782e-01</leafValues></_>
        <_>
          <internalNodes>
            0 -1 1 4.5000000000000000e+00</internalNodes>
          <leafValues>
            3.5849639773368835e-01 -1.</leafValues></_></weakClassifiers></_>
    <!-- stage 4 -->
    <_>
      <maxWeakCount>3</maxWeakCount>
      <stageThreshold>-1.6640168428421021e+00</stageThreshold>
      <weakClassifiers>
        <_>
          <internalNodes>
            0 -1 10 3.5000000000000000e+00</internalNodes>
          <leafValues>
            -7.6923079788684845e-02 -9.7306394577026367e-01</leafValues></_>
        <_>
          <internalNodes>
            0 -1 3 154.</internalNodes>
          <leafValues>
            -9.7487354278564453e-01 8.6770161986351013e-02</leafValues></_>
        <_>
          <internalNodes>
            0 -1 7 5.0000000000000000e-01</internalNodes>
          <leafValues>
            2.8392070531845093e-01 -1.</leafValues></_></weakClassifiers></_></stages>
  <features>
    <_>
      <rect>
        8 2 8 12</rect></_>
    <_>
      <rect>
        8 13 20 2</rect></_>
    <_>
      <rect>
        16 0 5 8</rect></_>
    <_>
      <rect>
        19 12 6 6</rect></_>
    <_>
      <rect>
        23 17 13 3</rect></_>
    <_>
      <rect>
        24 6 7 10</rect></_>
    <_>
      <rect>
        24 12 6 7</rect></_>
    <_>
      <rect>
        26 16 10 4</rect></_>
    <_>
      <rect>
        29 6 3 6</rect></_>
    <_>
      <rect>
        36 4 5 11</rect></_>
    <_>
      <rect>
        38 16 1 2</rect></_>
    <_>
      <rect>
        40 17 2 2</rect></_></features></cascade>
</opencv_storage>
