<?xml version="1.0"?>
<opencv_storage>
<stage5>
  <maxWeakCount>17</maxWeakCount>
  <stageThreshold>-1.3161940574645996e+00</stageThreshold>
  <weakClassifiers>
    <_>
      <internalNodes>
        0 -1 5457107 -2.1837285021319985e-04</internalNodes>
      <leafValues>
        4.9409449100494385e-01 -1.7465753853321075e-01</leafValues></_>
    <_>
      <internalNodes>
        0 -1 5467468 3.5540724638849497e-04</internalNodes>
      <leafValues>
        -2.4346309900283813e-01 4.7388869524002075e-01</leafValues></_>
    <_>
      <internalNodes>
        0 -1 77041 -1.0912572033703327e-02</internalNodes>
      <leafValues>
        5.7435411214828491e-01 -2.0132847130298615e-01</leafValues></_>
    <_>
      <internalNodes>
        0 -1 5564553 2.6875030016526580e-04</internalNodes>
      <leafValues>
        -3.3082205057144165e-01 4.0778627991676331e-01</leafValues></_>
    <_>
      <internalNodes>
        0 -1 5572406 1.9516906468197703e-04</internalNodes>
      <leafValues>
        -2.6026901602745056e-01 3.8211339712142944e-01</leafValues></_>
    <_>
      <internalNodes>
        0 -1 6228404 1.8361830152571201e-03</internalNodes>
      <leafValues>
        1.5206030011177063e-01 -7.5595974922180176e-01</leafValues></_>
    <_>
      <internalNodes>
        0 -1 4232180 8.6038264271337539e-05</internalNodes>
      <leafValues>
        2.4664466083049774e-01 -4.6992757916450500e-01</leafValues></_>
    <_>
      <internalNodes>
        0 -1 1209347 -5.8166515082120895e-03</internalNodes>
      <leafValues>
        6.1089444160461426e-01 -1.9424653053283691e-01</leafValues></_>
    <_>
      <internalNodes>
        0 -1 5676847 -1.6163059626705945e-05</internalNodes>
      <leafValues>
        3.9399001002311707e-01 -2.4710892140865326e-01</leafValues></_>
    <_>
      <internalNodes>
        0 -1 4877596 -1.4690415933728218e-02</internalNodes>
      <leafValues>
        6.8926864862442017e-01 -1.5916758775711060e-01</leafValues></_>
    <_>
      <internalNodes>
        0 -1 3239199 1.5972446650266647e-02</internalNodes>
      <leafValues>
        -1.9856157898902893e-01 4.7424745559692383e-01</leafValues></_>
    <_>
      <internalNodes>
        0 -1 5344156 8.7456427514553070e-02</internalNodes>
      <leafValues>
        -1.9519951939582825e-01 5.0449311733245850e-01</leafValues></_>
    <_>
      <internalNodes>
        0 -1 6058258 -1.3690123159904033e-04</internalNodes>
      <leafValues>
        -5.7574594020843506e-01 2.1628734469413757e-01</leafValues></_>
    <_>
      <internalNodes>
        0 -1 4815314 1.4061611727811396e-04</internalNodes>
      <leafValues>
        -3.9221826195716858e-01 3.0819326639175415e-01</leafValues></_>
    <_>
      <internalNodes>
        0 -1 4683088 3.4108839463442564e-04</internalNodes>
      <leafValues>
        -2.6937982439994812e-01 4.1776871681213379e-01</leafValues></_>
    <_>
      <internalNodes>
        0 -1 3516269 -5.8131513651460409e-04</internalNodes>
      <leafValues>
        5.3942352533340454e-01 -1.7698737978935242e-01</leafValues></_>
    <_>
      <internalNodes>
        0 -1 5370819 7.5353287684265524e-05</internalNodes>
      <leafValues>
        -2.7293956279754639e-01 3.9880448579788208e-01</leafValues></_></weakClassifiers></stage5>
</opencv_storage>
