<?xml version="1.0"?>
<opencv_storage>
<stage1>
  <maxWeakCount>9</maxWeakCount>
  <stageThreshold>-1.0239920616149902e+00</stageThreshold>
  <weakClassifiers>
    <_>
      <internalNodes>
        0 -1 206273 -1.4693360775709152e-02</internalNodes>
      <leafValues>
        8.0194807052612305e-01 -9.5528453588485718e-02</leafValues></_>
    <_>
      <internalNodes>
        0 -1 4813379 3.5382472560741007e-06</internalNodes>
      <leafValues>
        -4.5718413591384888e-01 4.3343982100486755e-01</leafValues></_>
    <_>
      <internalNodes>
        0 -1 4690812 2.5075332814594731e-06</internalNodes>
      <leafValues>
        -4.7575986385345459e-01 3.5843360424041748e-01</leafValues></_>
    <_>
      <internalNodes>
        0 -1 4594851 2.3698664153926075e-04</internalNodes>
      <leafValues>
        2.2068552672863007e-01 -7.2305953502655029e-01</leafValues></_>
    <_>
      <internalNodes>
        0 -1 5467482 2.4365886929444969e-04</internalNodes>
      <leafValues>
        -4.6176379919052124e-01 3.3498349785804749e-01</leafValues></_>
    <_>
      <internalNodes>
        0 -1 5053016 6.8714423105120659e-04</internalNodes>
      <leafValues>
        2.2135858237743378e-01 -8.8839906454086304e-01</leafValues></_>
    <_>
      <internalNodes>
        0 -1 2166877 2.3446615785360336e-02</internalNodes>
      <leafValues>
        -3.1463465094566345e-01 5.0876146554946899e-01</leafValues></_>
    <_>
      <internalNodes>
        0 -1 4946139 -3.1054730061441660e-04</internalNodes>
      <leafValues>
        -7.3878777027130127e-01 1.7386661469936371e-01</leafValues></_>
    <_>
      <internalNodes>
        0 -1 5245605 -2.0943225536029786e-06</internalNodes>
      <leafValues>
        3.1196588277816772e-01 -4.4029504060745239e-01</leafValues></_></weakClassifiers></stage1>
</opencv_storage>
