<?xml version="1.0"?>
<opencv_storage>
<stage15>
  <maxWeakCount>6</maxWeakCount>
  <stageThreshold>-7.7828967571258545e-01</stageThreshold>
  <weakClassifiers>
    <_>
      <internalNodes>
        0 -1 4910561 1.1040432378649712e-02</internalNodes>
      <leafValues>
        -3.7962964177131653e-01 5.8399999141693115e-01</leafValues></_>
    <_>
      <internalNodes>
        0 -1 4795754 -3.6522600566968322e-04</internalNodes>
      <leafValues>
        7.8064393997192383e-01 -2.3734341561794281e-01</leafValues></_>
    <_>
      <internalNodes>
        0 -1 5872295 5.8000623539555818e-06</internalNodes>
      <leafValues>
        -5.7424491643905640e-01 4.0145403146743774e-01</leafValues></_>
    <_>
      <internalNodes>
        0 -1 5864240 -1.0935645550489426e-03</internalNodes>
      <leafValues>
        -9.7705847024917603e-01 2.1617610752582550e-01</leafValues></_>
    <_>
      <internalNodes>
        0 -1 5457676 -2.6441165246069431e-03</internalNodes>
      <leafValues>
        4.3065503239631653e-01 -4.8329591751098633e-01</leafValues></_>
    <_>
      <internalNodes>
        0 -1 5136975 8.4339955355972052e-04</internalNodes>
      <leafValues>
        -2.8358155488967896e-01 7.1506601572036743e-01</leafValues></_></weakClassifiers></stage15>
</opencv_storage>
