<?xml version="1.0"?>
<opencv_storage>
<stage8>
  <maxWeakCount>6</maxWeakCount>
  <stageThreshold>-3.2172334194183350e-01</stageThreshold>
  <weakClassifiers>
    <_>
      <internalNodes>
        0 -1 5672914 -1.7326077795587480e-04</internalNodes>
      <leafValues>
        6.8421053886413574e-01 -3.8325992226600647e-01</leafValues></_>
    <_>
      <internalNodes>
        0 -1 3751984 -2.5704728905111551e-03</internalNodes>
      <leafValues>
        6.1997437477111816e-01 -3.8710045814514160e-01</leafValues></_>
    <_>
      <internalNodes>
        0 -1 5780130 2.0562592544592917e-04</internalNodes>
      <leafValues>
        -2.7678558230400085e-01 9.0107405185699463e-01</leafValues></_>
    <_>
      <internalNodes>
        0 -1 2722332 -7.2271435055881739e-04</internalNodes>
      <leafValues>
        8.3299279212951660e-01 -2.9718190431594849e-01</leafValues></_>
    <_>
      <internalNodes>
        0 -1 6624711 -7.0569876697845757e-06</internalNodes>
      <leafValues>
        5.8201348781585693e-01 -4.5084875822067261e-01</leafValues></_>
    <_>
      <internalNodes>
        0 -1 3592557 -1.5040171274449676e-04</internalNodes>
      <leafValues>
        4.8224139213562012e-01 -5.6648379564285278e-01</leafValues></_></weakClassifiers></stage8>
</opencv_storage>
