<?xml version="1.0"?>
<opencv_storage>
<stage9>
  <maxWeakCount>21</maxWeakCount>
  <stageThreshold>-1.7514388561248779e+00</stageThreshold>
  <weakClassifiers>
    <_>
      <internalNodes>
        0 -1 5576914 -2.8937729075551033e-04</internalNodes>
      <leafValues>
        5.0000000000000000e-01 -5.9729731082916260e-01</leafValues></_>
    <_>
      <internalNodes>
        0 -1 5467468 1.7989861953537911e-04</internalNodes>
      <leafValues>
        -3.8713559508323669e-01 2.2601121664047241e-01</leafValues></_>
    <_>
      <internalNodes>
        0 -1 4568272 -7.3889430495910347e-05</internalNodes>
      <leafValues>
        -4.9065533280372620e-01 1.6763909161090851e-01</leafValues></_>
    <_>
      <internalNodes>
        0 -1 675443 -9.8188869655132294e-02</internalNodes>
      <leafValues>
        3.3000984787940979e-01 -2.6564973592758179e-01</leafValues></_>
    <_>
      <internalNodes>
        0 -1 5772574 -1.3352748646866530e-04</internalNodes>
      <leafValues>
        -4.3175578117370605e-01 2.1104821562767029e-01</leafValues></_>
    <_>
      <internalNodes>
        0 -1 6401414 7.3430142947472632e-05</internalNodes>
      <leafValues>
        1.5896797180175781e-01 -5.3585100173950195e-01</leafValues></_>
    <_>
      <internalNodes>
        0 -1 5850294 3.0162231996655464e-04</internalNodes>
      <leafValues>
        -1.6224421560764313e-01 4.9708402156829834e-01</leafValues></_>
    <_>
      <internalNodes>
        0 -1 4694195 -4.1812211275100708e-03</internalNodes>
      <leafValues>
        -7.2768843173980713e-01 1.1675704270601273e-01</leafValues></_>
    <_>
      <internalNodes>
        0 -1 3829343 3.4348722547292709e-03</internalNodes>
      <leafValues>
        8.5271269083023071e-02 -8.5008805990219116e-01</leafValues></_>
    <_>
      <internalNodes>
        0 -1 5257067 8.3190767327323556e-05</internalNodes>
      <leafValues>
        -3.0712017416954041e-01 2.7264839410781860e-01</leafValues></_>
    <_>
      <internalNodes>
        0 -1 5357947 3.3615840948186815e-05</internalNodes>
      <leafValues>
        -2.8534251451492310e-01 2.6441273093223572e-01</leafValues></_>
    <_>
      <internalNodes>
        0 -1 5366121 1.4844381075818092e-04</internalNodes>
      <leafValues>
        -2.6714190840721130e-01 2.9719281196594238e-01</leafValues></_>
    <_>
      <internalNodes>
        0 -1 5953614 6.2725244788452983e-05</internalNodes>
      <leafValues>
        1.3957807421684265e-01 -5.1340484619140625e-01</leafValues></_>
    <_>
      <internalNodes>
        0 -1 5856310 -9.3423004727810621e-05</internalNodes>
      <leafValues>
        -5.6252723932266235e-01 1.8518759310245514e-01</leafValues></_>
    <_>
      <internalNodes>
        0 -1 5772670 3.2124991412274539e-04</internalNodes>
      <leafValues>
        -2.2574974596500397e-01 3.6748889088630676e-01</leafValues></_>
    <_>
      <internalNodes>
        0 -1 5467454 2.1299334184732288e-04</internalNodes>
      <leafValues>
        -2.1504169702529907e-01 3.3037269115447998e-01</leafValues></_>
    <_>
      <internalNodes>
        0 -1 6795507 3.5499443765729666e-03</internalNodes>
      <leafValues>
        -1.8561804294586182e-01 3.8411116600036621e-01</leafValues></_>
    <_>
      <internalNodes>
        0 -1 1653832 -1.0147074935957789e-03</internalNodes>
      <leafValues>
        3.7683999538421631e-01 -1.9474758207798004e-01</leafValues></_>
    <_>
      <internalNodes>
        0 -1 3540725 -1.3786124996840954e-02</internalNodes>
      <leafValues>
        -8.5086214542388916e-01 9.8206467926502228e-02</leafValues></_>
    <_>
      <internalNodes>
        0 -1 5238922 -1.2956083519384265e-03</internalNodes>
      <leafValues>
        2.4995110929012299e-01 -2.8017592430114746e-01</leafValues></_>
    <_>
      <internalNodes>
        0 -1 5470133 3.9779628423275426e-05</internalNodes>
      <leafValues>
        -3.0460879206657410e-01 2.5609669089317322e-01</leafValues></_></weakClassifiers></stage9>
</opencv_storage>
