<?xml version="1.0"?>
<opencv_storage>
<stage3>
  <maxWeakCount>6</maxWeakCount>
  <stageThreshold>-4.7601753473281860e-01</stageThreshold>
  <weakClassifiers>
    <_>
      <internalNodes>
        0 -1 3683289 -1.4138618484139442e-02</internalNodes>
      <leafValues>
        6.0714286565780640e-01 -6.4161849021911621e-01</leafValues></_>
    <_>
      <internalNodes>
        0 -1 5287391 -4.4410996139049530e-02</internalNodes>
      <leafValues>
        6.0639518499374390e-01 -5.7861220836639404e-01</leafValues></_>
    <_>
      <internalNodes>
        0 -1 4419044 -6.9249235093593597e-03</internalNodes>
      <leafValues>
        8.6468583345413208e-01 -3.9797827601432800e-01</leafValues></_>
    <_>
      <internalNodes>
        0 -1 5380478 -1.5330992173403502e-03</internalNodes>
      <leafValues>
        8.6192619800567627e-01 -4.1919782757759094e-01</leafValues></_>
    <_>
      <internalNodes>
        0 -1 2249417 6.4913900569081306e-03</internalNodes>
      <leafValues>
        -4.2100650072097778e-01 7.6549643278121948e-01</leafValues></_>
    <_>
      <internalNodes>
        0 -1 5970454 6.1391539929900318e-05</internalNodes>
      <leafValues>
        -3.8911455869674683e-01 8.7794321775436401e-01</leafValues></_></weakClassifiers></stage3>
</opencv_storage>
