<?xml version="1.0"?>
<opencv_storage>
<stage18>
  <maxWeakCount>8</maxWeakCount>
  <stageThreshold>-2.6856660842895508e-01</stageThreshold>
  <weakClassifiers>
    <_>
      <internalNodes>
        0 -1 5222500 4.4297554995864630e-04</internalNodes>
      <leafValues>
        -2.4812030792236328e-01 7.5999999046325684e-01</leafValues></_>
    <_>
      <internalNodes>
        0 -1 7206077 -2.0125251263380051e-02</internalNodes>
      <leafValues>
        3.7253203988075256e-01 -5.5459356307983398e-01</leafValues></_>
    <_>
      <internalNodes>
        0 -1 4552751 -3.5776940640062094e-03</internalNodes>
      <leafValues>
        7.8068971633911133e-01 -2.8041660785675049e-01</leafValues></_>
    <_>
      <internalNodes>
        0 -1 4795803 8.1692222738638520e-04</internalNodes>
      <leafValues>
        -3.6623510718345642e-01 5.2559596300125122e-01</leafValues></_>
    <_>
      <internalNodes>
        0 -1 4305524 -3.2105389982461929e-03</internalNodes>
      <leafValues>
        8.2246863842010498e-01 -2.2310246527194977e-01</leafValues></_>
    <_>
      <internalNodes>
        0 -1 5791159 6.3272059196606278e-04</internalNodes>
      <leafValues>
        2.9071989655494690e-01 -7.8502535820007324e-01</leafValues></_>
    <_>
      <internalNodes>
        0 -1 5467451 -8.9658380602486432e-05</internalNodes>
      <leafValues>
        6.0951763391494751e-01 -3.7019780278205872e-01</leafValues></_>
    <_>
      <internalNodes>
        0 -1 4925219 -1.0688689071685076e-03</internalNodes>
      <leafValues>
        7.2224795818328857e-01 -3.0540317296981812e-01</leafValues></_></weakClassifiers></stage18>
</opencv_storage>
